[[0.7224898919425907, -0.8927767707406038, 0.5726842568047499, 0.8769703044176417, -0.12656102375816633, 0.6794185518447293, 0.4072411343866029, -0.6570538099867251, 0.11189105483607253, 0.658351880950744, -0.9655580494516186, 0.2591077390117671, -0.8058069997436226, 0.4279745594107714, 0.8148235115106559, 0.9614251518963345, 0.8453097146670998, -0.588802504562066, 0.48532940478647246, 0.12735318379959648, 0.3116892077190398, -0.4898343866496461, -0.6403310232976536, 0.006830297645245675, 0.7416981186231061, 0.950351438830421, -0.37029365544448956, -0.6234286813726362, 0.5779115598324365, -0.37778555982521467], [-0.7234128903325711, -0.24346378832718552, 0.7846528758605313, -0.28530803462796006, -0.24163969499840085, 0.984449745901602, 0.6067771846570471, -0.3940183008708078, -0.7937446590196013, 0.31505788992559447, 0.19304837869155023, -0.9889911107236411, -0.25114665816616766, -0.6847793702227291, 0.8157399698843266, -0.44797312125338096, -0.8464136447053966, -0.6367701665530798, 0.5618308095365627, 0.5296173634247736, 0.009350368623170366, 0.4904263645852839, 0.02606975063756221, -0.9925234003891188, -0.014054506136923077, -0.4676531022227379, 0.9026938647827959, -0.19425942517840505, 0.7032955174708642, 0.6815121058054618]]