[[-0.3533598986300015, 0.5827357700136016, 0.6132282220915467, 0.537626357844226, -0.9098358686997584, 0.8385625444516731, -0.2884737728665859, 0.06221904480221929, -0.2838717214367517, -0.9489620004165866, 0.49913656763443237, -0.15625174492302207, -0.3504222503731595, 0.10239389418836087, -0.05214661996167558, -0.6769103071847145, 0.9142297767970253, -0.8138083598632742, -0.7626459603555693, -0.6677725832886994, -0.5721952603472834, -0.09701052595745571, 0.2258018655932824, 0.8701723690160292, -0.6928490154119218, -0.9610122921577611, -0.18800119540006272, 0.03477815502530829, -0.47046154969956455, -0.2799465604103406], [-0.8045808689598686, -0.8112352822109031, -0.40995907495589895, -0.5379073065819544, 0.8169587720084508, -0.5577799244710525, 0.19617636219618628, 0.2742489347324719, 0.3641816394109629, 0.1210112718124734, -0.033714474969652075, -0.9669839348444416, 0.3523425608571565, 0.3184820948961218, -0.3718800059412197, -0.17451469081693127, 0.05732017853097071, 0.38426275711485935, 0.8972318773790681, -0.5954309300069422, 0.5718055070415906, 0.9731028906161409, -0.560281010924663, -0.418949062884566, -0.41466039918039854, 0.5092925854415944, 0.9433442191741883, -0.9941782198687348, -0.47327594302387643, -0.07165908961932299]]